
#ifndef DECISION_TREE_B_TOTALCELLS
#define DECISION_TREE_B_TOTALCELLS
/*
0 A_GiniIndex
1 A_GridSize_0
2 A_GridSize_1
3 A_GridSize_2
4 A_Histogram_count_0
5 A_Histogram_count_1
6 A_Histogram_count_2
7 A_Histogram_count_3
8 A_Histogram_count_4
9 A_Histogram_count_5
10 A_Histogram_count_6
11 A_Histogram_count_7
12 A_Histogram_count_8
13 A_Histogram_count_9
14 A_Histogram_percentile_0
15 A_Histogram_percentile_1
16 A_Histogram_percentile_2
17 A_Histogram_percentile_3
18 A_Histogram_percentile_4
19 A_Histogram_percentile_5
20 A_Histogram_percentile_6
21 A_Histogram_percentile_7
22 A_Histogram_percentile_8
23 A_Histogram_percentile_9
24 A_Histogram_value_0
25 A_Histogram_value_1
26 A_Histogram_value_2
27 A_Histogram_value_3
28 A_Histogram_value_4
29 A_Histogram_value_5
30 A_Histogram_value_6
31 A_Histogram_value_7
32 A_Histogram_value_8
33 A_Histogram_value_9
34 A_MBR_Lower_0
35 A_MBR_Lower_1
36 A_MBR_Lower_2
37 A_MBR_Upper_0
38 A_MBR_Upper_1
39 A_MBR_Upper_2
40 A_MaxPoints
41 A_NonEmptyCells
42 A_NumPoints
43 A_TotalCells
44 B_GiniIndex
45 B_GridSize_0
46 B_GridSize_1
47 B_GridSize_2
48 B_Histogram_count_0
49 B_Histogram_count_1
50 B_Histogram_count_2
51 B_Histogram_count_3
52 B_Histogram_count_4
53 B_Histogram_count_5
54 B_Histogram_count_6
55 B_Histogram_count_7
56 B_Histogram_count_8
57 B_Histogram_count_9
58 B_Histogram_percentile_0
59 B_Histogram_percentile_1
60 B_Histogram_percentile_2
61 B_Histogram_percentile_3
62 B_Histogram_percentile_4
63 B_Histogram_percentile_5
64 B_Histogram_percentile_6
65 B_Histogram_percentile_7
66 B_Histogram_percentile_8
67 B_Histogram_percentile_9
68 B_Histogram_value_0
69 B_Histogram_value_1
70 B_Histogram_value_2
71 B_Histogram_value_3
72 B_Histogram_value_4
73 B_Histogram_value_5
74 B_Histogram_value_6
75 B_Histogram_value_7
76 B_Histogram_value_8
77 B_Histogram_value_9
78 B_MBR_Lower_0
79 B_MBR_Lower_1
80 B_MBR_Lower_2
81 B_MBR_Upper_0
82 B_MBR_Upper_1
83 B_MBR_Upper_2
84 B_MaxPoints
85 B_NonEmptyCells
86 B_NumPoints
87 B_TotalCells
*/
double PredicateSampleRate(double * input) {
    double var0;
    if (input[53] <= 49297.0) {
        if (input[79] <= 91.0) {
            if (input[4] <= 793.5) {
                if (input[36] <= 66.0) {
                    if (input[30] <= 33.5) {
                        if (input[48] <= 155.0) {
                            if (input[8] <= 43033.0) {
                                if (input[57] <= 2820.0) {
                                    var0 = 0.004999999888241291;
                                } else {
                                    var0 = 0.0010000000474974513;
                                }
                            } else {
                                if (input[35] <= 51.5) {
                                    if (input[55] <= 1348.0) {
                                        var0 = 0.00009999999747378752;
                                    } else {
                                        if (input[43] <= 157024.0) {
                                            var0 = 0.0010000000474974513;
                                        } else {
                                            var0 = 0.0005000000237487257;
                                        }
                                    }
                                } else {
                                    var0 = 0.004999999888241291;
                                }
                            }
                        } else {
                            if (input[52] <= 4910.0) {
                                if (input[3] <= 49.5) {
                                    var0 = 0.009999999776482582;
                                } else {
                                    if (input[35] <= 42.5) {
                                        var0 = 0.009999999776482582;
                                    } else {
                                        var0 = 0.004999999888241291;
                                    }
                                }
                            } else {
                                if (input[38] <= 212.5) {
                                    if (input[0] <= 0.1828644946217537) {
                                        if (input[62] <= 0.7916665077209473) {
                                            if (input[36] <= 1.0) {
                                                var0 = 0.0010000000474974513;
                                            } else {
                                                var0 = 0.004999999888241291;
                                            }
                                        } else {
                                            var0 = 0.009999999776482582;
                                        }
                                    } else {
                                        if (input[1] <= 29.0) {
                                            var0 = 0.004999999888241291;
                                        } else {
                                            var0 = 0.009999999776482582;
                                        }
                                    }
                                } else {
                                    if (input[54] <= 67591.5) {
                                        if (input[9] <= 78590.0) {
                                            if (input[43] <= 155278.5) {
                                                if (input[56] <= 3421.0) {
                                                    if (input[85] <= 57786.0) {
                                                        var0 = 0.0005000000237487257;
                                                    } else {
                                                        var0 = 0.00009999999747378752;
                                                    }
                                                } else {
                                                    var0 = 0.0010000000474974513;
                                                }
                                            } else {
                                                var0 = 0.0010000000474974513;
                                            }
                                        } else {
                                            var0 = 0.004999999888241291;
                                        }
                                    } else {
                                        if (input[5] <= 19416.0) {
                                            var0 = 0.004999999888241291;
                                        } else {
                                            var0 = 0.009999999776482582;
                                        }
                                    }
                                }
                            }
                        }
                    } else {
                        if (input[4] <= 147.5) {
                            if (input[39] <= 130.0) {
                                var0 = 0.0005000000237487257;
                            } else {
                                var0 = 0.00009999999747378752;
                            }
                        } else {
                            var0 = 0.0010000000474974513;
                        }
                    }
                } else {
                    var0 = 0.009999999776482582;
                }
            } else {
                if (input[70] <= 21.5) {
                    var0 = 0.009999999776482582;
                } else {
                    if (input[7] <= 58111.0) {
                        var0 = 0.004999999888241291;
                    } else {
                        var0 = 0.0010000000474974513;
                    }
                }
            }
        } else {
            if (input[43] <= 155575.5) {
                if (input[79] <= 116.5) {
                    if (input[79] <= 95.5) {
                        var0 = 0.009999999776482582;
                    } else {
                        if (input[36] <= 54.5) {
                            if (input[8] <= 48738.5) {
                                if (input[30] <= 34.0) {
                                    var0 = 0.0010000000474974513;
                                } else {
                                    var0 = 0.0005000000237487257;
                                }
                            } else {
                                var0 = 0.004999999888241291;
                            }
                        } else {
                            var0 = 0.004999999888241291;
                        }
                    }
                } else {
                    if (input[78] <= 124.5) {
                        var0 = 0.009999999776482582;
                    } else {
                        var0 = 0.004999999888241291;
                    }
                }
            } else {
                var0 = 0.009999999776482582;
            }
        }
    } else {
        if (input[43] <= 162562.5) {
            if (input[51] <= 29383.5) {
                var0 = 0.009999999776482582;
            } else {
                if (input[83] <= 135.5) {
                    if (input[34] <= 54.5) {
                        if (input[10] <= 70967.5) {
                            if (input[78] <= 48.5) {
                                if (input[7] <= 35078.5) {
                                    var0 = 0.00009999999747378752;
                                } else {
                                    var0 = 0.004999999888241291;
                                }
                            } else {
                                var0 = 0.009999999776482582;
                            }
                        } else {
                            if (input[29] <= 24.0) {
                                var0 = 0.004999999888241291;
                            } else {
                                if (input[28] <= 19.0) {
                                    if (input[38] <= 213.5) {
                                        var0 = 0.00009999999747378752;
                                    } else {
                                        var0 = 0.0005000000237487257;
                                    }
                                } else {
                                    var0 = 0.0010000000474974513;
                                }
                            }
                        }
                    } else {
                        if (input[34] <= 93.5) {
                            if (input[82] <= 211.5) {
                                var0 = 0.0005000000237487257;
                            } else {
                                var0 = 0.00009999999747378752;
                            }
                        } else {
                            var0 = 0.0010000000474974513;
                        }
                    }
                } else {
                    if (input[44] <= 0.20250408351421356) {
                        if (input[86] <= 1345547.5) {
                            if (input[7] <= 42378.5) {
                                if (input[48] <= 807.5) {
                                    if (input[35] <= 42.5) {
                                        if (input[72] <= 20.0) {
                                            var0 = 0.009999999776482582;
                                        } else {
                                            if (input[38] <= 213.5) {
                                                var0 = 0.004999999888241291;
                                            } else {
                                                var0 = 0.0010000000474974513;
                                            }
                                        }
                                    } else {
                                        if (input[51] <= 41634.0) {
                                            if (input[37] <= 194.0) {
                                                if (input[80] <= 13.0) {
                                                    if (input[10] <= 1649.0) {
                                                        if (input[80] <= 0.5) {
                                                            if (input[5] <= 10528.0) {
                                                                var0 = 0.00009999999747378752;
                                                            } else {
                                                                var0 = 0.0010000000474974513;
                                                            }
                                                        } else {
                                                            if (input[38] <= 152.0) {
                                                                var0 = 0.0005000000237487257;
                                                            } else {
                                                                var0 = 0.00009999999747378752;
                                                            }
                                                        }
                                                    } else {
                                                        if (input[44] <= 0.1789008378982544) {
                                                            if (input[69] <= 15.5) {
                                                                var0 = 0.0010000000474974513;
                                                            } else {
                                                                var0 = 0.0005000000237487257;
                                                            }
                                                        } else {
                                                            if (input[4] <= 116.5) {
                                                                var0 = 0.0010000000474974513;
                                                            } else {
                                                                if (input[44] <= 0.18764978647232056) {
                                                                    var0 = 0.00009999999747378752;
                                                                } else {
                                                                    if (input[78] <= 52.0) {
                                                                        var0 = 0.0010000000474974513;
                                                                    } else {
                                                                        var0 = 0.0005000000237487257;
                                                                    }
                                                                }
                                                            }
                                                        }
                                                    }
                                                } else {
                                                    var0 = 0.004999999888241291;
                                                }
                                            } else {
                                                var0 = 0.004999999888241291;
                                            }
                                        } else {
                                            var0 = 0.004999999888241291;
                                        }
                                    }
                                } else {
                                    var0 = 0.009999999776482582;
                                }
                            } else {
                                if (input[4] <= 704.0) {
                                    if (input[69] <= 16.5) {
                                        if (input[37] <= 183.0) {
                                            var0 = 0.004999999888241291;
                                        } else {
                                            var0 = 0.009999999776482582;
                                        }
                                    } else {
                                        var0 = 0.00009999999747378752;
                                    }
                                } else {
                                    if (input[2] <= 62.5) {
                                        if (input[50] <= 35655.0) {
                                            if (input[20] <= 0.875) {
                                                var0 = 0.0005000000237487257;
                                            } else {
                                                var0 = 0.00009999999747378752;
                                            }
                                        } else {
                                            var0 = 0.0010000000474974513;
                                        }
                                    } else {
                                        var0 = 0.004999999888241291;
                                    }
                                }
                            }
                        } else {
                            if (input[53] <= 51871.5) {
                                if (input[37] <= 183.5) {
                                    var0 = 0.009999999776482582;
                                } else {
                                    if (input[49] <= 18348.0) {
                                        if (input[53] <= 50046.5) {
                                            var0 = 0.0010000000474974513;
                                        } else {
                                            if (input[45] <= 47.0) {
                                                var0 = 0.0005000000237487257;
                                            } else {
                                                var0 = 0.00009999999747378752;
                                            }
                                        }
                                    } else {
                                        var0 = 0.004999999888241291;
                                    }
                                }
                            } else {
                                if (input[1] <= 13.5) {
                                    if (input[28] <= 29.0) {
                                        if (input[86] <= 1541375.0) {
                                            var0 = 0.004999999888241291;
                                        } else {
                                            var0 = 0.00009999999747378752;
                                        }
                                    } else {
                                        if (input[35] <= 86.0) {
                                            var0 = 0.00009999999747378752;
                                        } else {
                                            var0 = 0.0005000000237487257;
                                        }
                                    }
                                } else {
                                    if (input[37] <= 106.5) {
                                        var0 = 0.004999999888241291;
                                    } else {
                                        if (input[9] <= 80335.0) {
                                            if (input[38] <= 217.5) {
                                                if (input[13] <= 2455.0) {
                                                    if (input[2] <= 57.5) {
                                                        if (input[37] <= 151.5) {
                                                            if (input[10] <= 1514.0) {
                                                                var0 = 0.0010000000474974513;
                                                            } else {
                                                                if (input[23] <= 0.5) {
                                                                    var0 = 0.0005000000237487257;
                                                                } else {
                                                                    var0 = 0.00009999999747378752;
                                                                }
                                                            }
                                                        } else {
                                                            if (input[53] <= 81878.0) {
                                                                if (input[8] <= 64308.0) {
                                                                    if (input[18] <= 0.7916665077209473) {
                                                                        var0 = 0.00009999999747378752;
                                                                    } else {
                                                                        var0 = 0.0005000000237487257;
                                                                    }
                                                                } else {
                                                                    var0 = 0.0010000000474974513;
                                                                }
                                                            } else {
                                                                var0 = 0.0010000000474974513;
                                                            }
                                                        }
                                                    } else {
                                                        if (input[48] <= 587.0) {
                                                            var0 = 0.0010000000474974513;
                                                        } else {
                                                            if (input[35] <= 38.5) {
                                                                if (input[53] <= 81870.0) {
                                                                    var0 = 0.0010000000474974513;
                                                                } else {
                                                                    var0 = 0.00009999999747378752;
                                                                }
                                                            } else {
                                                                if (input[8] <= 67161.0) {
                                                                    if (input[38] <= 209.5) {
                                                                        if (input[86] <= 1541239.5) {
                                                                            if (input[7] <= 43494.5) {
                                                                                var0 = 0.0010000000474974513;
                                                                            } else {
                                                                                var0 = 0.0005000000237487257;
                                                                            }
                                                                        } else {
                                                                            var0 = 0.0005000000237487257;
                                                                        }
                                                                    } else {
                                                                        if (input[39] <= 139.5) {
                                                                            if (input[49] <= 19188.5) {
                                                                                if (input[81] <= 188.5) {
                                                                                    if (input[35] <= 42.5) {
                                                                                        if (input[37] <= 183.5) {
                                                                                            var0 = 0.0005000000237487257;
                                                                                        } else {
                                                                                            var0 = 0.00009999999747378752;
                                                                                        }
                                                                                    } else {
                                                                                        if (input[11] <= 71986.5) {
                                                                                            if (input[49] <= 17836.0) {
                                                                                                if (input[9] <= 65644.5) {
                                                                                                    var0 = 0.00009999999747378752;
                                                                                                } else {
                                                                                                    var0 = 0.0005000000237487257;
                                                                                                }
                                                                                            } else {
                                                                                                var0 = 0.0010000000474974513;
                                                                                            }
                                                                                        } else {
                                                                                            if (input[47] <= 51.0) {
                                                                                                var0 = 0.0010000000474974513;
                                                                                            } else {
                                                                                                var0 = 0.0005000000237487257;
                                                                                            }
                                                                                        }
                                                                                    }
                                                                                } else {
                                                                                    if (input[0] <= 0.18471429497003555) {
                                                                                        if (input[28] <= 26.5) {
                                                                                            var0 = 0.0005000000237487257;
                                                                                        } else {
                                                                                            var0 = 0.00009999999747378752;
                                                                                        }
                                                                                    } else {
                                                                                        var0 = 0.00009999999747378752;
                                                                                    }
                                                                                }
                                                                            } else {
                                                                                var0 = 0.00009999999747378752;
                                                                            }
                                                                        } else {
                                                                            if (input[0] <= 0.1842249035835266) {
                                                                                if (input[83] <= 140.5) {
                                                                                    if (input[37] <= 188.0) {
                                                                                        var0 = 0.00009999999747378752;
                                                                                    } else {
                                                                                        var0 = 0.0005000000237487257;
                                                                                    }
                                                                                } else {
                                                                                    if (input[86] <= 1619626.5) {
                                                                                        if (input[8] <= 43724.0) {
                                                                                            var0 = 0.0005000000237487257;
                                                                                        } else {
                                                                                            if (input[2] <= 58.5) {
                                                                                                var0 = 0.0005000000237487257;
                                                                                            } else {
                                                                                                var0 = 0.00009999999747378752;
                                                                                            }
                                                                                        }
                                                                                    } else {
                                                                                        if (input[1] <= 46.5) {
                                                                                            var0 = 0.0005000000237487257;
                                                                                        } else {
                                                                                            var0 = 0.0010000000474974513;
                                                                                        }
                                                                                    }
                                                                                }
                                                                            } else {
                                                                                if (input[53] <= 83131.5) {
                                                                                    if (input[69] <= 14.5) {
                                                                                        if (input[38] <= 213.0) {
                                                                                            if (input[7] <= 36020.0) {
                                                                                                var0 = 0.0005000000237487257;
                                                                                            } else {
                                                                                                var0 = 0.0010000000474974513;
                                                                                            }
                                                                                        } else {
                                                                                            if (input[42] <= 1497803.0) {
                                                                                                if (input[44] <= 0.1806201934814453) {
                                                                                                    var0 = 0.0005000000237487257;
                                                                                                } else {
                                                                                                    var0 = 0.0010000000474974513;
                                                                                                }
                                                                                            } else {
                                                                                                if (input[82] <= 219.5) {
                                                                                                    if (input[39] <= 141.5) {
                                                                                                        var0 = 0.00009999999747378752;
                                                                                                    } else {
                                                                                                        var0 = 0.0005000000237487257;
                                                                                                    }
                                                                                                } else {
                                                                                                    var0 = 0.0010000000474974513;
                                                                                                }
                                                                                            }
                                                                                        }
                                                                                    } else {
                                                                                        var0 = 0.00009999999747378752;
                                                                                    }
                                                                                } else {
                                                                                    var0 = 0.00009999999747378752;
                                                                                }
                                                                            }
                                                                        }
                                                                    }
                                                                } else {
                                                                    if (input[50] <= 47571.5) {
                                                                        var0 = 0.0010000000474974513;
                                                                    } else {
                                                                        if (input[49] <= 21657.0) {
                                                                            if (input[25] <= 13.5) {
                                                                                var0 = 0.00009999999747378752;
                                                                            } else {
                                                                                var0 = 0.0005000000237487257;
                                                                            }
                                                                        } else {
                                                                            var0 = 0.0010000000474974513;
                                                                        }
                                                                    }
                                                                }
                                                            }
                                                        }
                                                    }
                                                } else {
                                                    if (input[4] <= 122.0) {
                                                        var0 = 0.0010000000474974513;
                                                    } else {
                                                        if (input[43] <= 17545.0) {
                                                            if (input[80] <= 0.5) {
                                                                if (input[10] <= 4135.0) {
                                                                    var0 = 0.0010000000474974513;
                                                                } else {
                                                                    if (input[54] <= 88999.5) {
                                                                        var0 = 0.0005000000237487257;
                                                                    } else {
                                                                        var0 = 0.00009999999747378752;
                                                                    }
                                                                }
                                                            } else {
                                                                if (input[64] <= 0.375) {
                                                                    var0 = 0.0005000000237487257;
                                                                } else {
                                                                    var0 = 0.00009999999747378752;
                                                                }
                                                            }
                                                        } else {
                                                            if (input[35] <= 91.0) {
                                                                var0 = 0.0010000000474974513;
                                                            } else {
                                                                var0 = 0.0005000000237487257;
                                                            }
                                                        }
                                                    }
                                                }
                                            } else {
                                                if (input[79] <= 44.5) {
                                                    if (input[39] <= 143.0) {
                                                        if (input[47] <= 51.5) {
                                                            var0 = 0.00009999999747378752;
                                                        } else {
                                                            var0 = 0.0005000000237487257;
                                                        }
                                                    } else {
                                                        var0 = 0.0010000000474974513;
                                                    }
                                                } else {
                                                    if (input[54] <= 78751.5) {
                                                        var0 = 0.009999999776482582;
                                                    } else {
                                                        var0 = 0.004999999888241291;
                                                    }
                                                }
                                            }
                                        } else {
                                            var0 = 0.004999999888241291;
                                        }
                                    }
                                }
                            }
                        }
                    } else {
                        var0 = 0.009999999776482582;
                    }
                }
            }
        } else {
            if (input[50] <= 38149.5) {
                if (input[83] <= 136.5) {
                    var0 = 0.00009999999747378752;
                } else {
                    if (input[38] <= 220.5) {
                        if (input[81] <= 184.5) {
                            var0 = 0.004999999888241291;
                        } else {
                            var0 = 0.009999999776482582;
                        }
                    } else {
                        var0 = 0.0010000000474974513;
                    }
                }
            } else {
                if (input[2] <= 65.5) {
                    if (input[48] <= 682.0) {
                        if (input[80] <= 4.5) {
                            var0 = 0.004999999888241291;
                        } else {
                            if (input[8] <= 64797.5) {
                                var0 = 0.0010000000474974513;
                            } else {
                                var0 = 0.00009999999747378752;
                            }
                        }
                    } else {
                        if (input[10] <= 87687.0) {
                            if (input[47] <= 49.5) {
                                var0 = 0.0005000000237487257;
                            } else {
                                var0 = 0.00009999999747378752;
                            }
                        } else {
                            if (input[83] <= 143.0) {
                                var0 = 0.0010000000474974513;
                            } else {
                                var0 = 0.00009999999747378752;
                            }
                        }
                    }
                } else {
                    if (input[10] <= 88825.5) {
                        var0 = 0.009999999776482582;
                    } else {
                        if (input[50] <= 41429.0) {
                            var0 = 0.004999999888241291;
                        } else {
                            if (input[2] <= 67.5) {
                                var0 = 0.00009999999747378752;
                            } else {
                                var0 = 0.0010000000474974513;
                            }
                        }
                    }
                }
            }
        }
    }
    return var0;
}

#endif // DECISION_TREE_B_TOTALCELLS
