digraph Tree {
node [shape=box, fontname="helvetica"] ;
edge [fontname="helvetica"] ;
0 [label="B_Histogram_count_5 <= 49297.0\nsquared_error = 0.0\nsamples = 400\nvalue = 0.002"] ;
1 [label="B_MBR_Lower_1 <= 91.0\nsquared_error = 0.0\nsamples = 90\nvalue = 0.005"] ;
0 -> 1 [labeldistance=2.5, labelangle=45, headlabel="True"] ;
2 [label="A_Histogram_count_0 <= 793.5\nsquared_error = 0.0\nsamples = 65\nvalue = 0.004"] ;
1 -> 2 ;
3 [label="A_MBR_Lower_2 <= 66.0\nsquared_error = 0.0\nsamples = 56\nvalue = 0.004"] ;
2 -> 3 ;
4 [label="A_Histogram_value_6 <= 33.5\nsquared_error = 0.0\nsamples = 54\nvalue = 0.003"] ;
3 -> 4 ;
5 [label="B_Histogram_count_0 <= 155.0\nsquared_error = 0.0\nsamples = 47\nvalue = 0.004"] ;
4 -> 5 ;
6 [label="A_Histogram_count_4 <= 43033.0\nsquared_error = 0.0\nsamples = 17\nvalue = 0.002"] ;
5 -> 6 ;
7 [label="B_Histogram_count_9 <= 2820.0\nsquared_error = 0.0\nsamples = 5\nvalue = 0.004"] ;
6 -> 7 ;
8 [label="squared_error = 0.0\nsamples = 4\nvalue = 0.005"] ;
7 -> 8 ;
9 [label="squared_error = 0.0\nsamples = 1\nvalue = 0.001"] ;
7 -> 9 ;
10 [label="A_MBR_Lower_1 <= 51.5\nsquared_error = 0.0\nsamples = 12\nvalue = 0.001"] ;
6 -> 10 ;
11 [label="B_Histogram_count_7 <= 1348.0\nsquared_error = 0.0\nsamples = 11\nvalue = 0.001"] ;
10 -> 11 ;
12 [label="squared_error = 0.0\nsamples = 3\nvalue = 0.0"] ;
11 -> 12 ;
13 [label="A_TotalCells <= 157024.0\nsquared_error = 0.0\nsamples = 8\nvalue = 0.001"] ;
11 -> 13 ;
14 [label="squared_error = 0.0\nsamples = 7\nvalue = 0.001"] ;
13 -> 14 ;
15 [label="squared_error = 0.0\nsamples = 1\nvalue = 0.001"] ;
13 -> 15 ;
16 [label="squared_error = -0.0\nsamples = 1\nvalue = 0.005"] ;
10 -> 16 ;
17 [label="B_Histogram_count_4 <= 4910.0\nsquared_error = 0.0\nsamples = 30\nvalue = 0.005"] ;
5 -> 17 ;
18 [label="A_GridSize_2 <= 49.5\nsquared_error = 0.0\nsamples = 8\nvalue = 0.008"] ;
17 -> 18 ;
19 [label="squared_error = 0.0\nsamples = 4\nvalue = 0.01"] ;
18 -> 19 ;
20 [label="A_MBR_Lower_1 <= 42.5\nsquared_error = 0.0\nsamples = 4\nvalue = 0.006"] ;
18 -> 20 ;
21 [label="squared_error = 0.0\nsamples = 1\nvalue = 0.01"] ;
20 -> 21 ;
22 [label="squared_error = 0.0\nsamples = 3\nvalue = 0.005"] ;
20 -> 22 ;
23 [label="A_MBR_Upper_1 <= 212.5\nsquared_error = 0.0\nsamples = 22\nvalue = 0.004"] ;
17 -> 23 ;
24 [label="A_GiniIndex <= 0.183\nsquared_error = 0.0\nsamples = 10\nvalue = 0.006"] ;
23 -> 24 ;
25 [label="B_Histogram_percentile_4 <= 0.792\nsquared_error = 0.0\nsamples = 7\nvalue = 0.005"] ;
24 -> 25 ;
26 [label="A_MBR_Lower_2 <= 1.0\nsquared_error = 0.0\nsamples = 6\nvalue = 0.004"] ;
25 -> 26 ;
27 [label="squared_error = 0.0\nsamples = 2\nvalue = 0.001"] ;
26 -> 27 ;
28 [label="squared_error = 0.0\nsamples = 4\nvalue = 0.005"] ;
26 -> 28 ;
29 [label="squared_error = -0.0\nsamples = 1\nvalue = 0.01"] ;
25 -> 29 ;
30 [label="A_GridSize_0 <= 29.0\nsquared_error = 0.0\nsamples = 3\nvalue = 0.008"] ;
24 -> 30 ;
31 [label="squared_error = 0.0\nsamples = 1\nvalue = 0.005"] ;
30 -> 31 ;
32 [label="squared_error = 0.0\nsamples = 2\nvalue = 0.01"] ;
30 -> 32 ;
33 [label="B_Histogram_count_6 <= 67591.5\nsquared_error = 0.0\nsamples = 12\nvalue = 0.002"] ;
23 -> 33 ;
34 [label="A_Histogram_count_5 <= 78590.0\nsquared_error = 0.0\nsamples = 10\nvalue = 0.001"] ;
33 -> 34 ;
35 [label="A_TotalCells <= 155278.5\nsquared_error = 0.0\nsamples = 9\nvalue = 0.001"] ;
34 -> 35 ;
36 [label="B_Histogram_count_8 <= 3421.0\nsquared_error = 0.0\nsamples = 4\nvalue = 0.0"] ;
35 -> 36 ;
37 [label="B_NonEmptyCells <= 57786.0\nsquared_error = 0.0\nsamples = 3\nvalue = 0.0"] ;
36 -> 37 ;
38 [label="squared_error = 0.0\nsamples = 1\nvalue = 0.001"] ;
37 -> 38 ;
39 [label="squared_error = 0.0\nsamples = 2\nvalue = 0.0"] ;
37 -> 39 ;
40 [label="squared_error = 0.0\nsamples = 1\nvalue = 0.001"] ;
36 -> 40 ;
41 [label="squared_error = 0.0\nsamples = 5\nvalue = 0.001"] ;
35 -> 41 ;
42 [label="squared_error = 0.0\nsamples = 1\nvalue = 0.005"] ;
34 -> 42 ;
43 [label="A_Histogram_count_1 <= 19416.0\nsquared_error = 0.0\nsamples = 2\nvalue = 0.007"] ;
33 -> 43 ;
44 [label="squared_error = 0.0\nsamples = 1\nvalue = 0.005"] ;
43 -> 44 ;
45 [label="squared_error = 0.0\nsamples = 1\nvalue = 0.01"] ;
43 -> 45 ;
46 [label="A_Histogram_count_0 <= 147.5\nsquared_error = 0.0\nsamples = 7\nvalue = 0.001"] ;
4 -> 46 ;
47 [label="A_MBR_Upper_2 <= 130.0\nsquared_error = 0.0\nsamples = 6\nvalue = 0.0"] ;
46 -> 47 ;
48 [label="squared_error = 0.0\nsamples = 5\nvalue = 0.001"] ;
47 -> 48 ;
49 [label="squared_error = -0.0\nsamples = 1\nvalue = 0.0"] ;
47 -> 49 ;
50 [label="squared_error = 0.0\nsamples = 1\nvalue = 0.001"] ;
46 -> 50 ;
51 [label="squared_error = 0.0\nsamples = 2\nvalue = 0.01"] ;
3 -> 51 ;
52 [label="B_Histogram_value_2 <= 21.5\nsquared_error = 0.0\nsamples = 9\nvalue = 0.008"] ;
2 -> 52 ;
53 [label="squared_error = 0.0\nsamples = 6\nvalue = 0.01"] ;
52 -> 53 ;
54 [label="A_Histogram_count_3 <= 58111.0\nsquared_error = 0.0\nsamples = 3\nvalue = 0.004"] ;
52 -> 54 ;
55 [label="squared_error = 0.0\nsamples = 2\nvalue = 0.005"] ;
54 -> 55 ;
56 [label="squared_error = 0.0\nsamples = 1\nvalue = 0.001"] ;
54 -> 56 ;
57 [label="A_TotalCells <= 155575.5\nsquared_error = 0.0\nsamples = 25\nvalue = 0.007"] ;
1 -> 57 ;
58 [label="B_MBR_Lower_1 <= 116.5\nsquared_error = 0.0\nsamples = 18\nvalue = 0.006"] ;
57 -> 58 ;
59 [label="B_MBR_Lower_1 <= 95.5\nsquared_error = 0.0\nsamples = 11\nvalue = 0.004"] ;
58 -> 59 ;
60 [label="squared_error = 0.0\nsamples = 2\nvalue = 0.01"] ;
59 -> 60 ;
61 [label="A_MBR_Lower_2 <= 54.5\nsquared_error = 0.0\nsamples = 9\nvalue = 0.003"] ;
59 -> 61 ;
62 [label="A_Histogram_count_4 <= 48738.5\nsquared_error = 0.0\nsamples = 6\nvalue = 0.002"] ;
61 -> 62 ;
63 [label="A_Histogram_value_6 <= 34.0\nsquared_error = 0.0\nsamples = 4\nvalue = 0.001"] ;
62 -> 63 ;
64 [label="squared_error = 0.0\nsamples = 3\nvalue = 0.001"] ;
63 -> 64 ;
65 [label="squared_error = 0.0\nsamples = 1\nvalue = 0.001"] ;
63 -> 65 ;
66 [label="squared_error = 0.0\nsamples = 2\nvalue = 0.005"] ;
62 -> 66 ;
67 [label="squared_error = 0.0\nsamples = 3\nvalue = 0.005"] ;
61 -> 67 ;
68 [label="B_MBR_Lower_0 <= 124.5\nsquared_error = 0.0\nsamples = 7\nvalue = 0.009"] ;
58 -> 68 ;
69 [label="squared_error = 0.0\nsamples = 6\nvalue = 0.01"] ;
68 -> 69 ;
70 [label="squared_error = 0.0\nsamples = 1\nvalue = 0.005"] ;
68 -> 70 ;
71 [label="squared_error = -0.0\nsamples = 7\nvalue = 0.01"] ;
57 -> 71 ;
72 [label="A_TotalCells <= 162562.5\nsquared_error = 0.0\nsamples = 310\nvalue = 0.002"] ;
0 -> 72 [labeldistance=2.5, labelangle=-45, headlabel="False"] ;
73 [label="B_Histogram_count_3 <= 29383.5\nsquared_error = 0.0\nsamples = 277\nvalue = 0.001"] ;
72 -> 73 ;
74 [label="squared_error = 0.0\nsamples = 2\nvalue = 0.01"] ;
73 -> 74 ;
75 [label="B_MBR_Upper_2 <= 135.5\nsquared_error = 0.0\nsamples = 275\nvalue = 0.001"] ;
73 -> 75 ;
76 [label="A_MBR_Lower_0 <= 54.5\nsquared_error = 0.0\nsamples = 20\nvalue = 0.003"] ;
75 -> 76 ;
77 [label="A_Histogram_count_6 <= 70967.5\nsquared_error = 0.0\nsamples = 14\nvalue = 0.005"] ;
76 -> 77 ;
78 [label="B_MBR_Lower_0 <= 48.5\nsquared_error = 0.0\nsamples = 8\nvalue = 0.007"] ;
77 -> 78 ;
79 [label="A_Histogram_count_3 <= 35078.5\nsquared_error = 0.0\nsamples = 4\nvalue = 0.004"] ;
78 -> 79 ;
80 [label="squared_error = 0.0\nsamples = 1\nvalue = 0.0"] ;
79 -> 80 ;
81 [label="squared_error = 0.0\nsamples = 3\nvalue = 0.005"] ;
79 -> 81 ;
82 [label="squared_error = 0.0\nsamples = 4\nvalue = 0.01"] ;
78 -> 82 ;
83 [label="A_Histogram_value_5 <= 24.0\nsquared_error = 0.0\nsamples = 6\nvalue = 0.001"] ;
77 -> 83 ;
84 [label="squared_error = 0.0\nsamples = 1\nvalue = 0.005"] ;
83 -> 84 ;
85 [label="A_Histogram_value_4 <= 19.0\nsquared_error = 0.0\nsamples = 5\nvalue = 0.001"] ;
83 -> 85 ;
86 [label="A_MBR_Upper_1 <= 213.5\nsquared_error = 0.0\nsamples = 2\nvalue = 0.0"] ;
85 -> 86 ;
87 [label="squared_error = 0.0\nsamples = 1\nvalue = 0.0"] ;
86 -> 87 ;
88 [label="squared_error = 0.0\nsamples = 1\nvalue = 0.001"] ;
86 -> 88 ;
89 [label="squared_error = 0.0\nsamples = 3\nvalue = 0.001"] ;
85 -> 89 ;
90 [label="A_MBR_Lower_0 <= 93.5\nsquared_error = 0.0\nsamples = 6\nvalue = 0.001"] ;
76 -> 90 ;
91 [label="B_MBR_Upper_1 <= 211.5\nsquared_error = 0.0\nsamples = 4\nvalue = 0.0"] ;
90 -> 91 ;
92 [label="squared_error = 0.0\nsamples = 2\nvalue = 0.001"] ;
91 -> 92 ;
93 [label="squared_error = 0.0\nsamples = 2\nvalue = 0.0"] ;
91 -> 93 ;
94 [label="squared_error = 0.0\nsamples = 2\nvalue = 0.001"] ;
90 -> 94 ;
95 [label="B_GiniIndex <= 0.203\nsquared_error = 0.0\nsamples = 255\nvalue = 0.001"] ;
75 -> 95 ;
96 [label="B_NumPoints <= 1345547.5\nsquared_error = 0.0\nsamples = 254\nvalue = 0.001"] ;
95 -> 96 ;
97 [label="A_Histogram_count_3 <= 42378.5\nsquared_error = 0.0\nsamples = 52\nvalue = 0.002"] ;
96 -> 97 ;
98 [label="B_Histogram_count_0 <= 807.5\nsquared_error = 0.0\nsamples = 41\nvalue = 0.001"] ;
97 -> 98 ;
99 [label="A_MBR_Lower_1 <= 42.5\nsquared_error = 0.0\nsamples = 40\nvalue = 0.001"] ;
98 -> 99 ;
100 [label="B_Histogram_value_4 <= 20.0\nsquared_error = 0.0\nsamples = 4\nvalue = 0.004"] ;
99 -> 100 ;
101 [label="squared_error = 0.0\nsamples = 1\nvalue = 0.01"] ;
100 -> 101 ;
102 [label="A_MBR_Upper_1 <= 213.5\nsquared_error = 0.0\nsamples = 3\nvalue = 0.002"] ;
100 -> 102 ;
103 [label="squared_error = 0.0\nsamples = 1\nvalue = 0.005"] ;
102 -> 103 ;
104 [label="squared_error = 0.0\nsamples = 2\nvalue = 0.001"] ;
102 -> 104 ;
105 [label="B_Histogram_count_3 <= 41634.0\nsquared_error = 0.0\nsamples = 36\nvalue = 0.001"] ;
99 -> 105 ;
106 [label="A_MBR_Upper_0 <= 194.0\nsquared_error = 0.0\nsamples = 35\nvalue = 0.001"] ;
105 -> 106 ;
107 [label="B_MBR_Lower_2 <= 13.0\nsquared_error = 0.0\nsamples = 34\nvalue = 0.001"] ;
106 -> 107 ;
108 [label="A_Histogram_count_6 <= 1649.0\nsquared_error = 0.0\nsamples = 33\nvalue = 0.0"] ;
107 -> 108 ;
109 [label="B_MBR_Lower_2 <= 0.5\nsquared_error = 0.0\nsamples = 16\nvalue = 0.0"] ;
108 -> 109 ;
110 [label="A_Histogram_count_1 <= 10528.0\nsquared_error = 0.0\nsamples = 3\nvalue = 0.001"] ;
109 -> 110 ;
111 [label="squared_error = 0.0\nsamples = 1\nvalue = 0.0"] ;
110 -> 111 ;
112 [label="squared_error = 0.0\nsamples = 2\nvalue = 0.001"] ;
110 -> 112 ;
113 [label="A_MBR_Upper_1 <= 152.0\nsquared_error = 0.0\nsamples = 13\nvalue = 0.0"] ;
109 -> 113 ;
114 [label="squared_error = 0.0\nsamples = 1\nvalue = 0.001"] ;
113 -> 114 ;
115 [label="squared_error = 0.0\nsamples = 12\nvalue = 0.0"] ;
113 -> 115 ;
116 [label="B_GiniIndex <= 0.179\nsquared_error = 0.0\nsamples = 17\nvalue = 0.001"] ;
108 -> 116 ;
117 [label="B_Histogram_value_1 <= 15.5\nsquared_error = 0.0\nsamples = 7\nvalue = 0.001"] ;
116 -> 117 ;
118 [label="squared_error = 0.0\nsamples = 6\nvalue = 0.001"] ;
117 -> 118 ;
119 [label="squared_error = 0.0\nsamples = 1\nvalue = 0.001"] ;
117 -> 119 ;
120 [label="A_Histogram_count_0 <= 116.5\nsquared_error = 0.0\nsamples = 10\nvalue = 0.001"] ;
116 -> 120 ;
121 [label="squared_error = 0.0\nsamples = 3\nvalue = 0.001"] ;
120 -> 121 ;
122 [label="B_GiniIndex <= 0.188\nsquared_error = 0.0\nsamples = 7\nvalue = 0.0"] ;
120 -> 122 ;
123 [label="squared_error = 0.0\nsamples = 5\nvalue = 0.0"] ;
122 -> 123 ;
124 [label="B_MBR_Lower_0 <= 52.0\nsquared_error = 0.0\nsamples = 2\nvalue = 0.001"] ;
122 -> 124 ;
125 [label="squared_error = 0.0\nsamples = 1\nvalue = 0.001"] ;
124 -> 125 ;
126 [label="squared_error = 0.0\nsamples = 1\nvalue = 0.001"] ;
124 -> 126 ;
127 [label="squared_error = -0.0\nsamples = 1\nvalue = 0.005"] ;
107 -> 127 ;
128 [label="squared_error = -0.0\nsamples = 1\nvalue = 0.005"] ;
106 -> 128 ;
129 [label="squared_error = 0.0\nsamples = 1\nvalue = 0.005"] ;
105 -> 129 ;
130 [label="squared_error = 0.0\nsamples = 1\nvalue = 0.01"] ;
98 -> 130 ;
131 [label="A_Histogram_count_0 <= 704.0\nsquared_error = 0.0\nsamples = 11\nvalue = 0.005"] ;
97 -> 131 ;
132 [label="B_Histogram_value_1 <= 16.5\nsquared_error = 0.0\nsamples = 6\nvalue = 0.008"] ;
131 -> 132 ;
133 [label="A_MBR_Upper_0 <= 183.0\nsquared_error = 0.0\nsamples = 5\nvalue = 0.009"] ;
132 -> 133 ;
134 [label="squared_error = 0.0\nsamples = 1\nvalue = 0.005"] ;
133 -> 134 ;
135 [label="squared_error = 0.0\nsamples = 4\nvalue = 0.01"] ;
133 -> 135 ;
136 [label="squared_error = -0.0\nsamples = 1\nvalue = 0.0"] ;
132 -> 136 ;
137 [label="A_GridSize_1 <= 62.5\nsquared_error = 0.0\nsamples = 5\nvalue = 0.001"] ;
131 -> 137 ;
138 [label="B_Histogram_count_2 <= 35655.0\nsquared_error = 0.0\nsamples = 4\nvalue = 0.001"] ;
137 -> 138 ;
139 [label="A_Histogram_percentile_6 <= 0.875\nsquared_error = 0.0\nsamples = 3\nvalue = 0.0"] ;
138 -> 139 ;
140 [label="squared_error = 0.0\nsamples = 2\nvalue = 0.001"] ;
139 -> 140 ;
141 [label="squared_error = -0.0\nsamples = 1\nvalue = 0.0"] ;
139 -> 141 ;
142 [label="squared_error = 0.0\nsamples = 1\nvalue = 0.001"] ;
138 -> 142 ;
143 [label="squared_error = 0.0\nsamples = 1\nvalue = 0.005"] ;
137 -> 143 ;
144 [label="B_Histogram_count_5 <= 51871.5\nsquared_error = 0.0\nsamples = 202\nvalue = 0.001"] ;
96 -> 144 ;
145 [label="A_MBR_Upper_0 <= 183.5\nsquared_error = 0.0\nsamples = 8\nvalue = 0.003"] ;
144 -> 145 ;
146 [label="squared_error = 0.0\nsamples = 1\nvalue = 0.01"] ;
145 -> 146 ;
147 [label="B_Histogram_count_1 <= 18348.0\nsquared_error = 0.0\nsamples = 7\nvalue = 0.002"] ;
145 -> 147 ;
148 [label="B_Histogram_count_5 <= 50046.5\nsquared_error = 0.0\nsamples = 5\nvalue = 0.001"] ;
147 -> 148 ;
149 [label="squared_error = 0.0\nsamples = 3\nvalue = 0.001"] ;
148 -> 149 ;
150 [label="B_GridSize_0 <= 47.0\nsquared_error = 0.0\nsamples = 2\nvalue = 0.0"] ;
148 -> 150 ;
151 [label="squared_error = 0.0\nsamples = 1\nvalue = 0.001"] ;
150 -> 151 ;
152 [label="squared_error = 0.0\nsamples = 1\nvalue = 0.0"] ;
150 -> 152 ;
153 [label="squared_error = -0.0\nsamples = 2\nvalue = 0.005"] ;
147 -> 153 ;
154 [label="A_GridSize_0 <= 13.5\nsquared_error = 0.0\nsamples = 194\nvalue = 0.001"] ;
144 -> 154 ;
155 [label="A_Histogram_value_4 <= 29.0\nsquared_error = 0.0\nsamples = 9\nvalue = 0.002"] ;
154 -> 155 ;
156 [label="B_NumPoints <= 1541375.0\nsquared_error = 0.0\nsamples = 5\nvalue = 0.004"] ;
155 -> 156 ;
157 [label="squared_error = 0.0\nsamples = 4\nvalue = 0.005"] ;
156 -> 157 ;
158 [label="squared_error = -0.0\nsamples = 1\nvalue = 0.0"] ;
156 -> 158 ;
159 [label="A_MBR_Lower_1 <= 86.0\nsquared_error = 0.0\nsamples = 4\nvalue = 0.0"] ;
155 -> 159 ;
160 [label="squared_error = 0.0\nsamples = 3\nvalue = 0.0"] ;
159 -> 160 ;
161 [label="squared_error = 0.0\nsamples = 1\nvalue = 0.001"] ;
159 -> 161 ;
162 [label="A_MBR_Upper_0 <= 106.5\nsquared_error = 0.0\nsamples = 185\nvalue = 0.001"] ;
154 -> 162 ;
163 [label="squared_error = 0.0\nsamples = 1\nvalue = 0.005"] ;
162 -> 163 ;
164 [label="A_Histogram_count_5 <= 80335.0\nsquared_error = 0.0\nsamples = 184\nvalue = 0.001"] ;
162 -> 164 ;
165 [label="A_MBR_Upper_1 <= 217.5\nsquared_error = 0.0\nsamples = 183\nvalue = 0.001"] ;
164 -> 165 ;
166 [label="A_Histogram_count_9 <= 2455.0\nsquared_error = 0.0\nsamples = 172\nvalue = 0.0"] ;
165 -> 166 ;
167 [label="A_GridSize_1 <= 57.5\nsquared_error = 0.0\nsamples = 149\nvalue = 0.0"] ;
166 -> 167 ;
168 [label="A_MBR_Upper_0 <= 151.5\nsquared_error = 0.0\nsamples = 34\nvalue = 0.0"] ;
167 -> 168 ;
169 [label="A_Histogram_count_6 <= 1514.0\nsquared_error = 0.0\nsamples = 4\nvalue = 0.001"] ;
168 -> 169 ;
170 [label="squared_error = 0.0\nsamples = 2\nvalue = 0.001"] ;
169 -> 170 ;
171 [label="A_Histogram_percentile_9 <= 0.5\nsquared_error = 0.0\nsamples = 2\nvalue = 0.0"] ;
169 -> 171 ;
172 [label="squared_error = 0.0\nsamples = 1\nvalue = 0.001"] ;
171 -> 172 ;
173 [label="squared_error = 0.0\nsamples = 1\nvalue = 0.0"] ;
171 -> 173 ;
174 [label="B_Histogram_count_5 <= 81878.0\nsquared_error = 0.0\nsamples = 30\nvalue = 0.0"] ;
168 -> 174 ;
175 [label="A_Histogram_count_4 <= 64308.0\nsquared_error = 0.0\nsamples = 29\nvalue = 0.0"] ;
174 -> 175 ;
176 [label="A_Histogram_percentile_4 <= 0.792\nsquared_error = 0.0\nsamples = 28\nvalue = 0.0"] ;
175 -> 176 ;
177 [label="squared_error = 0.0\nsamples = 27\nvalue = 0.0"] ;
176 -> 177 ;
178 [label="squared_error = -0.0\nsamples = 1\nvalue = 0.001"] ;
176 -> 178 ;
179 [label="squared_error = -0.0\nsamples = 1\nvalue = 0.001"] ;
175 -> 179 ;
180 [label="squared_error = -0.0\nsamples = 1\nvalue = 0.001"] ;
174 -> 180 ;
181 [label="B_Histogram_count_0 <= 587.0\nsquared_error = 0.0\nsamples = 115\nvalue = 0.0"] ;
167 -> 181 ;
182 [label="squared_error = 0.0\nsamples = 4\nvalue = 0.001"] ;
181 -> 182 ;
183 [label="A_MBR_Lower_1 <= 38.5\nsquared_error = 0.0\nsamples = 111\nvalue = 0.0"] ;
181 -> 183 ;
184 [label="B_Histogram_count_5 <= 81870.0\nsquared_error = 0.0\nsamples = 6\nvalue = 0.001"] ;
183 -> 184 ;
185 [label="squared_error = 0.0\nsamples = 5\nvalue = 0.001"] ;
184 -> 185 ;
186 [label="squared_error = -0.0\nsamples = 1\nvalue = 0.0"] ;
184 -> 186 ;
187 [label="A_Histogram_count_4 <= 67161.0\nsquared_error = 0.0\nsamples = 105\nvalue = 0.0"] ;
183 -> 187 ;
188 [label="A_MBR_Upper_1 <= 209.5\nsquared_error = 0.0\nsamples = 96\nvalue = 0.0"] ;
187 -> 188 ;
189 [label="B_NumPoints <= 1541239.5\nsquared_error = 0.0\nsamples = 6\nvalue = 0.001"] ;
188 -> 189 ;
190 [label="A_Histogram_count_3 <= 43494.5\nsquared_error = 0.0\nsamples = 4\nvalue = 0.001"] ;
189 -> 190 ;
191 [label="squared_error = 0.0\nsamples = 3\nvalue = 0.001"] ;
190 -> 191 ;
192 [label="squared_error = 0.0\nsamples = 1\nvalue = 0.001"] ;
190 -> 192 ;
193 [label="squared_error = 0.0\nsamples = 2\nvalue = 0.001"] ;
189 -> 193 ;
194 [label="A_MBR_Upper_2 <= 139.5\nsquared_error = 0.0\nsamples = 90\nvalue = 0.0"] ;
188 -> 194 ;
195 [label="B_Histogram_count_1 <= 19188.5\nsquared_error = 0.0\nsamples = 45\nvalue = 0.0"] ;
194 -> 195 ;
196 [label="B_MBR_Upper_0 <= 188.5\nsquared_error = 0.0\nsamples = 35\nvalue = 0.0"] ;
195 -> 196 ;
197 [label="A_MBR_Lower_1 <= 42.5\nsquared_error = 0.0\nsamples = 19\nvalue = 0.001"] ;
196 -> 197 ;
198 [label="A_MBR_Upper_0 <= 183.5\nsquared_error = 0.0\nsamples = 4\nvalue = 0.0"] ;
197 -> 198 ;
199 [label="squared_error = 0.0\nsamples = 1\nvalue = 0.001"] ;
198 -> 199 ;
200 [label="squared_error = 0.0\nsamples = 3\nvalue = 0.0"] ;
198 -> 200 ;
201 [label="A_Histogram_count_7 <= 71986.5\nsquared_error = 0.0\nsamples = 15\nvalue = 0.001"] ;
197 -> 201 ;
202 [label="B_Histogram_count_1 <= 17836.0\nsquared_error = 0.0\nsamples = 11\nvalue = 0.001"] ;
201 -> 202 ;
203 [label="A_Histogram_count_5 <= 65644.5\nsquared_error = 0.0\nsamples = 9\nvalue = 0.0"] ;
202 -> 203 ;
204 [label="squared_error = 0.0\nsamples = 2\nvalue = 0.0"] ;
203 -> 204 ;
205 [label="squared_error = 0.0\nsamples = 7\nvalue = 0.001"] ;
203 -> 205 ;
206 [label="squared_error = 0.0\nsamples = 2\nvalue = 0.001"] ;
202 -> 206 ;
207 [label="B_GridSize_2 <= 51.0\nsquared_error = 0.0\nsamples = 4\nvalue = 0.001"] ;
201 -> 207 ;
208 [label="squared_error = 0.0\nsamples = 3\nvalue = 0.001"] ;
207 -> 208 ;
209 [label="squared_error = 0.0\nsamples = 1\nvalue = 0.001"] ;
207 -> 209 ;
210 [label="A_GiniIndex <= 0.185\nsquared_error = 0.0\nsamples = 16\nvalue = 0.0"] ;
196 -> 210 ;
211 [label="A_Histogram_value_4 <= 26.5\nsquared_error = 0.0\nsamples = 6\nvalue = 0.0"] ;
210 -> 211 ;
212 [label="squared_error = 0.0\nsamples = 3\nvalue = 0.001"] ;
211 -> 212 ;
213 [label="squared_error = 0.0\nsamples = 3\nvalue = 0.0"] ;
211 -> 213 ;
214 [label="squared_error = -0.0\nsamples = 10\nvalue = 0.0"] ;
210 -> 214 ;
215 [label="squared_error = 0.0\nsamples = 10\nvalue = 0.0"] ;
195 -> 215 ;
216 [label="A_GiniIndex <= 0.184\nsquared_error = 0.0\nsamples = 45\nvalue = 0.0"] ;
194 -> 216 ;
217 [label="B_MBR_Upper_2 <= 140.5\nsquared_error = 0.0\nsamples = 18\nvalue = 0.0"] ;
216 -> 217 ;
218 [label="A_MBR_Upper_0 <= 188.0\nsquared_error = 0.0\nsamples = 9\nvalue = 0.0"] ;
217 -> 218 ;
219 [label="squared_error = 0.0\nsamples = 8\nvalue = 0.0"] ;
218 -> 219 ;
220 [label="squared_error = 0.0\nsamples = 1\nvalue = 0.001"] ;
218 -> 220 ;
221 [label="B_NumPoints <= 1619626.5\nsquared_error = 0.0\nsamples = 9\nvalue = 0.001"] ;
217 -> 221 ;
222 [label="A_Histogram_count_4 <= 43724.0\nsquared_error = 0.0\nsamples = 6\nvalue = 0.0"] ;
221 -> 222 ;
223 [label="squared_error = 0.0\nsamples = 3\nvalue = 0.001"] ;
222 -> 223 ;
224 [label="A_GridSize_1 <= 58.5\nsquared_error = 0.0\nsamples = 3\nvalue = 0.0"] ;
222 -> 224 ;
225 [label="squared_error = 0.0\nsamples = 1\nvalue = 0.001"] ;
224 -> 225 ;
226 [label="squared_error = 0.0\nsamples = 2\nvalue = 0.0"] ;
224 -> 226 ;
227 [label="A_GridSize_0 <= 46.5\nsquared_error = 0.0\nsamples = 3\nvalue = 0.001"] ;
221 -> 227 ;
228 [label="squared_error = 0.0\nsamples = 1\nvalue = 0.001"] ;
227 -> 228 ;
229 [label="squared_error = 0.0\nsamples = 2\nvalue = 0.001"] ;
227 -> 229 ;
230 [label="B_Histogram_count_5 <= 83131.5\nsquared_error = 0.0\nsamples = 27\nvalue = 0.001"] ;
216 -> 230 ;
231 [label="B_Histogram_value_1 <= 14.5\nsquared_error = 0.0\nsamples = 24\nvalue = 0.001"] ;
230 -> 231 ;
232 [label="A_MBR_Upper_1 <= 213.0\nsquared_error = 0.0\nsamples = 22\nvalue = 0.001"] ;
231 -> 232 ;
233 [label="A_Histogram_count_3 <= 36020.0\nsquared_error = 0.0\nsamples = 9\nvalue = 0.001"] ;
232 -> 233 ;
234 [label="squared_error = 0.0\nsamples = 2\nvalue = 0.001"] ;
233 -> 234 ;
235 [label="squared_error = 0.0\nsamples = 7\nvalue = 0.001"] ;
233 -> 235 ;
236 [label="A_NumPoints <= 1497803.0\nsquared_error = 0.0\nsamples = 13\nvalue = 0.001"] ;
232 -> 236 ;
237 [label="B_GiniIndex <= 0.181\nsquared_error = 0.0\nsamples = 5\nvalue = 0.001"] ;
236 -> 237 ;
238 [label="squared_error = 0.0\nsamples = 1\nvalue = 0.001"] ;
237 -> 238 ;
239 [label="squared_error = 0.0\nsamples = 4\nvalue = 0.001"] ;
237 -> 239 ;
240 [label="B_MBR_Upper_1 <= 219.5\nsquared_error = 0.0\nsamples = 8\nvalue = 0.0"] ;
236 -> 240 ;
241 [label="A_MBR_Upper_2 <= 141.5\nsquared_error = 0.0\nsamples = 7\nvalue = 0.0"] ;
240 -> 241 ;
242 [label="squared_error = 0.0\nsamples = 3\nvalue = 0.0"] ;
241 -> 242 ;
243 [label="squared_error = -0.0\nsamples = 4\nvalue = 0.001"] ;
241 -> 243 ;
244 [label="squared_error = 0.0\nsamples = 1\nvalue = 0.001"] ;
240 -> 244 ;
245 [label="squared_error = -0.0\nsamples = 2\nvalue = 0.0"] ;
231 -> 245 ;
246 [label="squared_error = 0.0\nsamples = 3\nvalue = 0.0"] ;
230 -> 246 ;
247 [label="B_Histogram_count_2 <= 47571.5\nsquared_error = 0.0\nsamples = 9\nvalue = 0.001"] ;
187 -> 247 ;
248 [label="squared_error = 0.0\nsamples = 5\nvalue = 0.001"] ;
247 -> 248 ;
249 [label="B_Histogram_count_1 <= 21657.0\nsquared_error = 0.0\nsamples = 4\nvalue = 0.0"] ;
247 -> 249 ;
250 [label="A_Histogram_value_1 <= 13.5\nsquared_error = 0.0\nsamples = 3\nvalue = 0.0"] ;
249 -> 250 ;
251 [label="squared_error = 0.0\nsamples = 2\nvalue = 0.0"] ;
250 -> 251 ;
252 [label="squared_error = 0.0\nsamples = 1\nvalue = 0.001"] ;
250 -> 252 ;
253 [label="squared_error = 0.0\nsamples = 1\nvalue = 0.001"] ;
249 -> 253 ;
254 [label="A_Histogram_count_0 <= 122.0\nsquared_error = 0.0\nsamples = 23\nvalue = 0.001"] ;
166 -> 254 ;
255 [label="squared_error = 0.0\nsamples = 7\nvalue = 0.001"] ;
254 -> 255 ;
256 [label="A_TotalCells <= 17545.0\nsquared_error = 0.0\nsamples = 16\nvalue = 0.001"] ;
254 -> 256 ;
257 [label="B_MBR_Lower_2 <= 0.5\nsquared_error = 0.0\nsamples = 11\nvalue = 0.0"] ;
256 -> 257 ;
258 [label="A_Histogram_count_6 <= 4135.0\nsquared_error = 0.0\nsamples = 5\nvalue = 0.001"] ;
257 -> 258 ;
259 [label="squared_error = 0.0\nsamples = 2\nvalue = 0.001"] ;
258 -> 259 ;
260 [label="B_Histogram_count_6 <= 88999.5\nsquared_error = 0.0\nsamples = 3\nvalue = 0.0"] ;
258 -> 260 ;
261 [label="squared_error = 0.0\nsamples = 2\nvalue = 0.001"] ;
260 -> 261 ;
262 [label="squared_error = -0.0\nsamples = 1\nvalue = 0.0"] ;
260 -> 262 ;
263 [label="B_Histogram_percentile_6 <= 0.375\nsquared_error = 0.0\nsamples = 6\nvalue = 0.0"] ;
257 -> 263 ;
264 [label="squared_error = 0.0\nsamples = 1\nvalue = 0.001"] ;
263 -> 264 ;
265 [label="squared_error = 0.0\nsamples = 5\nvalue = 0.0"] ;
263 -> 265 ;
266 [label="A_MBR_Lower_1 <= 91.0\nsquared_error = 0.0\nsamples = 5\nvalue = 0.001"] ;
256 -> 266 ;
267 [label="squared_error = 0.0\nsamples = 4\nvalue = 0.001"] ;
266 -> 267 ;
268 [label="squared_error = 0.0\nsamples = 1\nvalue = 0.001"] ;
266 -> 268 ;
269 [label="B_MBR_Lower_1 <= 44.5\nsquared_error = 0.0\nsamples = 11\nvalue = 0.002"] ;
165 -> 269 ;
270 [label="A_MBR_Upper_2 <= 143.0\nsquared_error = 0.0\nsamples = 9\nvalue = 0.0"] ;
269 -> 270 ;
271 [label="B_GridSize_2 <= 51.5\nsquared_error = 0.0\nsamples = 8\nvalue = 0.0"] ;
270 -> 271 ;
272 [label="squared_error = 0.0\nsamples = 7\nvalue = 0.0"] ;
271 -> 272 ;
273 [label="squared_error = 0.0\nsamples = 1\nvalue = 0.001"] ;
271 -> 273 ;
274 [label="squared_error = -0.0\nsamples = 1\nvalue = 0.001"] ;
270 -> 274 ;
275 [label="B_Histogram_count_6 <= 78751.5\nsquared_error = 0.0\nsamples = 2\nvalue = 0.007"] ;
269 -> 275 ;
276 [label="squared_error = 0.0\nsamples = 1\nvalue = 0.01"] ;
275 -> 276 ;
277 [label="squared_error = 0.0\nsamples = 1\nvalue = 0.005"] ;
275 -> 277 ;
278 [label="squared_error = 0.0\nsamples = 1\nvalue = 0.005"] ;
164 -> 278 ;
279 [label="squared_error = 0.0\nsamples = 1\nvalue = 0.01"] ;
95 -> 279 ;
280 [label="B_Histogram_count_2 <= 38149.5\nsquared_error = 0.0\nsamples = 33\nvalue = 0.004"] ;
72 -> 280 ;
281 [label="B_MBR_Upper_2 <= 136.5\nsquared_error = 0.0\nsamples = 10\nvalue = 0.008"] ;
280 -> 281 ;
282 [label="squared_error = 0.0\nsamples = 1\nvalue = 0.0"] ;
281 -> 282 ;
283 [label="A_MBR_Upper_1 <= 220.5\nsquared_error = 0.0\nsamples = 9\nvalue = 0.008"] ;
281 -> 283 ;
284 [label="B_MBR_Upper_0 <= 184.5\nsquared_error = 0.0\nsamples = 8\nvalue = 0.009"] ;
283 -> 284 ;
285 [label="squared_error = 0.0\nsamples = 1\nvalue = 0.005"] ;
284 -> 285 ;
286 [label="squared_error = 0.0\nsamples = 7\nvalue = 0.01"] ;
284 -> 286 ;
287 [label="squared_error = -0.0\nsamples = 1\nvalue = 0.001"] ;
283 -> 287 ;
288 [label="A_GridSize_1 <= 65.5\nsquared_error = 0.0\nsamples = 23\nvalue = 0.002"] ;
280 -> 288 ;
289 [label="B_Histogram_count_0 <= 682.0\nsquared_error = 0.0\nsamples = 15\nvalue = 0.001"] ;
288 -> 289 ;
290 [label="B_MBR_Lower_2 <= 4.5\nsquared_error = 0.0\nsamples = 4\nvalue = 0.003"] ;
289 -> 290 ;
291 [label="squared_error = 0.0\nsamples = 2\nvalue = 0.005"] ;
290 -> 291 ;
292 [label="A_Histogram_count_4 <= 64797.5\nsquared_error = 0.0\nsamples = 2\nvalue = 0.001"] ;
290 -> 292 ;
293 [label="squared_error = 0.0\nsamples = 1\nvalue = 0.001"] ;
292 -> 293 ;
294 [label="squared_error = -0.0\nsamples = 1\nvalue = 0.0"] ;
292 -> 294 ;
295 [label="A_Histogram_count_6 <= 87687.0\nsquared_error = 0.0\nsamples = 11\nvalue = 0.0"] ;
289 -> 295 ;
296 [label="B_GridSize_2 <= 49.5\nsquared_error = 0.0\nsamples = 8\nvalue = 0.0"] ;
295 -> 296 ;
297 [label="squared_error = 0.0\nsamples = 2\nvalue = 0.001"] ;
296 -> 297 ;
298 [label="squared_error = -0.0\nsamples = 6\nvalue = 0.0"] ;
296 -> 298 ;
299 [label="B_MBR_Upper_2 <= 143.0\nsquared_error = 0.0\nsamples = 3\nvalue = 0.001"] ;
295 -> 299 ;
300 [label="squared_error = 0.0\nsamples = 2\nvalue = 0.001"] ;
299 -> 300 ;
301 [label="squared_error = -0.0\nsamples = 1\nvalue = 0.0"] ;
299 -> 301 ;
302 [label="A_Histogram_count_6 <= 88825.5\nsquared_error = 0.0\nsamples = 8\nvalue = 0.005"] ;
288 -> 302 ;
303 [label="squared_error = 0.0\nsamples = 3\nvalue = 0.01"] ;
302 -> 303 ;
304 [label="B_Histogram_count_2 <= 41429.0\nsquared_error = 0.0\nsamples = 5\nvalue = 0.002"] ;
302 -> 304 ;
305 [label="squared_error = 0.0\nsamples = 2\nvalue = 0.005"] ;
304 -> 305 ;
306 [label="A_GridSize_1 <= 67.5\nsquared_error = 0.0\nsamples = 3\nvalue = 0.0"] ;
304 -> 306 ;
307 [label="squared_error = 0.0\nsamples = 2\nvalue = 0.0"] ;
306 -> 307 ;
308 [label="squared_error = 0.0\nsamples = 1\nvalue = 0.001"] ;
306 -> 308 ;
}